
\data\
ngram 1=86
ngram 2=156
ngram 3=156

\1-grams:
-99	<s>	-0.472924
-0.6921131	</s>
-2.527148	cuál	-0.2772423
-1.243698	que	-0.5865713
-2.250595	está	-0.2658644
-2.527148	hola	-0.2772422
-2.527148	saluda	-0.2772422
-2.514909	preséntate	-0.28306
-2.514909	¿quién	-0.28306
-2.514909	cuentales	-0.28306
-2.514909	platica	-0.28306
-2.527148	prepara	-0.2772423
-2.527148	haz	-0.2772423
-2.050027	café	-0.5658713
-1.714365	cuenta	-0.3894033
-2.015759	di	-0.2937489
-2.015759	echate	-0.2937489
-1.89082	chiste	-0.687261
-2.514909	¿puedes	-0.28306
-2.514909	baila	-0.28306
-2.213879	mueve	-0.4529922
-2.015031	¿sabes	-0.5916332
-1.651053	¿que	-0.4279916
-2.015031	explica	-0.5916332
-2.015031	habla	-0.5916331
-2.015031	¿qué	-0.5916332
-2.022053	¿para	-0.5864205
-2.514909	adios	-0.28306
-2.514909	nos	-0.28306
-2.213879	hasta	-0.28306
-1.264098	es	-0.8100485
-2.527148	calor	-0.2772423
-2.527148	tan	-0.2772423
-2.551625	abierta	-0.2658644
-2.551625	cerrada	-0.2658644
-2.514909	enciende	-0.28306
-2.213879	apagar	-0.4529921
-2.514909	encender	-0.28306
-2.527148	tal	-0.2772422
-2.514909	eres?	-0.28306
-1.603145	de	-0.3521754
-2.514909	acerca	-0.28306
-2.514909	bailar?	-0.28306
-2.213879	el	-0.28306
-2.187654	son	-0.470156
-1.897114	se	-0.3561124
-2.198144	cosas	-0.4632475
-2.514909	vemos	-0.28306
-1.282718	la	-0.5106348
-2.514909	luego	-0.28306
-2.527148	hace	-0.2772422
-2.527148	frio	-0.2772423
-2.213879	ti	-0.4529922
-1.375705	un	-0.7177148
-2.015759	una	-0.5910921
-2.015759	algo	-0.5910921
-2.514909	bote	-0.28306
-2.514909	esqueleto	-0.28306
-2.187654	los	-0.2958165
-2.187654	microprocesadores	-0.470156
-2.187654	procesadores	-0.470156
-2.499174	sirve	-0.2906665
-2.514909	vista	-0.28306
-2.527148	temperatura	-0.2772422
-2.527148	esta	-0.2772422
-2.015759	broma	-0.5910921
-2.015759	gracioso	-0.5910921
-1.789714	microprocesador	-0.5366011
-1.789714	procesador	-0.5366011
-1.897114	puede	-0.4632475
-2.499174	usa	-0.2906665
-2.499174	utiliza	-0.2906665
-2.250595	puerta	-0.4295713
-1.353046	inteligencia	-0.8847879
-2.198144	hacer	-0.4632475
-2.198144	lograr	-0.4632475
-1.930819	del	-0.6557862
-2.213879	lámpara	-0.4529922
-2.187654	?	-0.470156
-1.721023	artificial	-0.8271776
-1.596084	artificial?	-0.935644
-2.198144	con	-0.4632475
-1.930819	garaje	-0.6557862
-2.213879	luz	-0.4529922
-2.213879	sala	-0.28306
-2.514909	estar	-0.28306

\2-grams:
-1.970634	<s> cuál	-0.2772423
-1.097759	<s> que	-0.379546
-1.694081	<s> está	-0.2658644
-1.970634	<s> hola	-0.2772422
-1.970634	<s> saluda	-0.2772422
-1.958395	<s> preséntate	-0.28306
-1.958395	<s> ¿quién	-0.28306
-1.958395	<s> cuentales	-0.28306
-1.958395	<s> platica	-0.28306
-1.970634	<s> prepara	-0.2772423
-1.970634	<s> haz	-0.2772423
-1.896222	<s> café	-0.2772423
-1.157851	<s> cuenta	-0.3894034
-1.459244	<s> di	-0.2937489
-1.459244	<s> echate	-0.2937489
-1.829041	<s> chiste	-0.2937489
-1.958395	<s> ¿puedes	-0.28306
-1.958395	<s> baila	-0.28306
-1.657365	<s> mueve	-0.4529922
-1.458517	<s> ¿sabes	-0.5916331
-1.094539	<s> ¿que	-0.4279916
-1.458517	<s> explica	-0.5916331
-1.458517	<s> habla	-0.5916332
-1.458517	<s> ¿qué	-0.5916332
-1.465539	<s> ¿para	-0.5864205
-1.958395	<s> adios	-0.28306
-1.958395	<s> nos	-0.28306
-1.657365	<s> hasta	-0.2830601
-1.958395	<s> enciende	-0.28306
-1.657365	<s> apagar	-0.4529922
-1.958395	<s> encender	-0.28306
-0.3005084	cuál es	-0.2772423
-0.2874615	que es	-0.8331597
-1.405098	que calor	-0.2772423
-1.405098	que tan	-0.2772423
-1.405098	que tal	-0.2772422
-1.067681	que se	-0.2906665
-1.377124	que sirve	-0.2906665
-0.6374473	está abierta	-0.2658644
-0.6374473	está cerrada	-0.2658644
-0.237201	hola </s>
-0.237201	saluda </s>
-0.233022	preséntate </s>
-0.318334	¿quién eres?	-0.28306
-0.3081471	cuentales de	-0.28306
-0.318334	platica acerca	-0.28306
-0.3218858	prepara café	-0.2772423
-0.3218858	haz café	-0.2772423
-0.1059692	café </s>
-0.4954568	cuenta que	-0.5916332
-0.9364086	cuenta un	-0.2937489
-0.9891575	cuenta una	-0.2937489
-0.9891575	cuenta algo	-0.2937489
-0.7322291	di un	-0.2937489
-0.7727505	di una	-0.2937489
-0.7727505	di algo	-0.2937489
-0.7322291	echate un	-0.2937489
-0.7727505	echate una	-0.2937489
-0.7727505	echate algo	-0.2937489
-0.07764751	chiste </s>
-0.318334	¿puedes bailar?	-0.28306
-0.233022	baila </s>
-0.1872362	mueve el	-0.2830601
-0.1200239	¿sabes que	-0.5916332
-0.9616463	¿que es	-0.2906665
-0.7337735	¿que son	-0.470156
-0.7386003	¿que se	-0.4632475
-0.7442637	¿que cosas	-0.4632475
-0.1200239	explica que	-0.5916332
-0.1247586	habla de	-0.2941066
-0.1204079	¿qué es	-0.3896186
-0.1216965	¿para que	-0.3854738
-0.233022	adios </s>
-0.318334	nos vemos	-0.28306
-0.5741123	hasta la	-0.28306
-0.6179271	hasta luego	-0.28306
-1.266038	es la	-0.2772423
-0.2920764	es un	-0.7694269
-0.520006	es inteligencia	-0.5864205
-0.3247549	calor hace	-0.2772422
-0.3247549	tan frio	-0.2772423
-0.3132691	abierta la	-0.2658644
-0.3132691	cerrada la	-0.2658644
-0.2958018	enciende la	-0.28306
-0.1765255	apagar la	-0.28306
-0.2958018	encender la	-0.28306
-0.237201	tal </s>
-0.233022	eres? </s>
-0.7977291	de la	-0.4529922
-0.8574332	de ti	-0.4529922
-1.123825	de microprocesadores	-0.2958165
-1.123825	de procesadores	-0.2958165
-1.044331	de inteligencia	-0.2906665
-1.158463	de estar	-0.28306
-0.3081471	acerca de	-0.28306
-0.233022	bailar? </s>
-0.6179271	el bote	-0.28306
-0.6179271	el esqueleto	-0.28306
-0.1781745	son los	-0.2958166
-0.5446049	se puede	-0.2906665
-0.8499032	se usa	-0.2906665
-0.8499032	se utiliza	-0.2906665
-0.1803194	cosas puede	-0.2906665
-0.233022	vemos </s>
-1.382456	la vista	-0.28306
-1.394694	la temperatura	-0.2772422
-1.118142	la puerta	-0.4295713
-0.5118546	la inteligencia	-0.8847882
-1.081426	la lámpara	-0.4529922
-1.081426	la luz	-0.4529922
-1.081426	la sala	-0.28306
-0.233022	luego </s>
-0.237201	hace </s>
-0.3247549	frio esta	-0.2772422
-0.1431384	ti </s>
-0.7266627	un chiste	-0.5910921
-0.5020454	un microprocesador	-0.5366014
-0.5020454	un procesador	-0.5366014
-0.1272155	una broma	-0.5910921
-0.1272155	algo gracioso	-0.5910921
-0.233022	bote </s>
-0.233022	esqueleto </s>
-0.6015985	los microprocesadores	-0.2958165
-0.6015985	los procesadores	-0.2958165
-0.1366176	microprocesadores </s>
-0.1366176	procesadores </s>
-0.2885036	sirve la	-0.2906665
-0.233022	vista </s>
-0.237201	temperatura </s>
-0.237201	esta </s>
-0.09925019	broma </s>
-0.09925019	gracioso </s>
-0.2030625	microprocesador </s>
-0.8423829	microprocesador ?	-0.2958165
-0.2030625	procesador </s>
-0.8423829	procesador ?	-0.2958165
-0.4813494	puede hacer	-0.4632475
-0.4813494	puede lograr	-0.4632475
-0.2885036	usa la	-0.2906665
-0.2885036	utiliza la	-0.2906665
-0.1989676	puerta del	-0.4295713
-0.4257689	inteligencia artificial	-0.8271776
-0.3008301	inteligencia artificial?	-0.935644
-0.1817563	hacer con	-0.4632475
-0.1714722	lograr la	-0.4632475
-0.1069702	del garaje	-0.6557862
-0.1828247	lámpara de	-0.4529922
-0.1366176	? </s>
-0.05483993	artificial </s>
-0.04210987	artificial? </s>
-0.1714722	con la	-0.4632475
-0.08408557	garaje </s>
-0.1859156	luz del	-0.4529921
-0.461776	sala </s>
-0.5978518	sala de	-0.28306
-0.233022	estar </s>

\3-grams:
-0.1329794	<s> cuál es
-0.2853737	<s> que es
-0.9600925	<s> que calor
-0.9600925	<s> que tan
-0.9600925	<s> que tal
-0.4511794	<s> está abierta
-0.4511794	<s> está cerrada
-0.1091693	<s> hola </s>
-0.1091693	<s> saluda </s>
-0.1059004	<s> preséntate </s>
-0.137117	<s> ¿quién eres?
-0.1335925	<s> cuentales de
-0.137117	<s> platica acerca
-0.1405357	<s> prepara café
-0.1405357	<s> haz café
-0.05273904	<s> café </s>
-0.3699421	<s> cuenta que
-0.8361808	<s> cuenta un
-0.8525733	<s> cuenta una
-0.8525733	<s> cuenta algo
-0.5883085	<s> di un
-0.6026658	<s> di una
-0.6026658	<s> di algo
-0.5883085	<s> echate un
-0.6026658	<s> echate una
-0.6026658	<s> echate algo
-0.03774587	<s> chiste </s>
-0.137117	<s> ¿puedes bailar?
-0.1059004	<s> baila </s>
-0.05720393	<s> mueve el
-0.0277198	<s> ¿sabes que
-0.8871083	<s> ¿que es
-0.6001926	<s> ¿que son
-0.6091213	<s> ¿que se
-0.6106828	<s> ¿que cosas
-0.0277198	<s> explica que
-0.02869587	<s> habla de
-0.02779928	<s> ¿qué es
-0.02841579	<s> ¿para que
-0.1059004	<s> adios </s>
-0.137117	<s> nos vemos
-0.4220732	<s> hasta la
-0.4376531	<s> hasta luego
-0.1292483	<s> enciende la
-0.05438069	<s> apagar la
-0.1292483	<s> encender la
-0.3006196	cuál es la
-0.1882348	que es un
-0.489227	que es inteligencia
-0.1415316	que calor hace
-0.1415316	que tan frio
-0.1091693	que tal </s>
-0.4998855	que se usa
-0.4998855	que se utiliza
-0.124097	que sirve la
-0.1418347	está abierta la
-0.1418347	está cerrada la
-0.1059004	¿quién eres? </s>
-0.2586603	cuentales de ti
-0.1335925	platica acerca de
-0.05273904	prepara café </s>
-0.05273904	haz café </s>
-0.05748302	cuenta que es
-0.2313948	cuenta un chiste
-0.0600353	cuenta una broma
-0.0600353	cuenta algo gracioso
-0.2313948	di un chiste
-0.0600353	di una broma
-0.0600353	di algo gracioso
-0.2313948	echate un chiste
-0.0600353	echate una broma
-0.0600353	echate algo gracioso
-0.1059004	¿puedes bailar? </s>
-0.4376531	mueve el bote
-0.4376531	mueve el esqueleto
-0.05748302	¿sabes que es
-0.1920815	¿que es inteligencia
-0.05256045	¿que son los
-0.1225973	¿que se puede
-0.05401016	¿que cosas puede
-0.05748302	explica que es
-0.6914273	habla de microprocesadores
-0.6914273	habla de procesadores
-0.6835433	habla de inteligencia
-0.2174391	¿qué es un
-0.4984099	¿qué es inteligencia
-0.3691055	¿para que se
-0.6708226	¿para que sirve
-0.1059004	nos vemos </s>
-0.3006143	hasta la vista
-0.1059004	hasta luego </s>
-0.3070351	es la temperatura
-0.3292931	es un microprocesador
-0.3292931	es un procesador
-0.1459411	es inteligencia artificial
-0.5966816	es inteligencia artificial?
-0.1091693	calor hace </s>
-0.1415316	tan frio esta
-0.3017828	abierta la puerta
-0.3017828	cerrada la puerta
-0.2822627	enciende la lámpara
-0.5487638	apagar la lámpara
-0.5487638	apagar la luz
-0.2822627	encender la luz
-0.1695165	de la sala
-0.04524656	de ti </s>
-0.06377775	de microprocesadores </s>
-0.06377775	de procesadores </s>
-0.1674645	de inteligencia artificial
-0.1059004	de estar </s>
-0.2586603	acerca de ti
-0.1059004	el bote </s>
-0.1059004	el esqueleto </s>
-0.4275642	son los microprocesadores
-0.4275642	son los procesadores
-0.3840495	se puede hacer
-0.3840495	se puede lograr
-0.124097	se usa la
-0.124097	se utiliza la
-0.3840495	cosas puede hacer
-0.3840495	cosas puede lograr
-0.1059004	la vista </s>
-0.1091693	la temperatura </s>
-0.06383286	la puerta del
-0.02926276	la inteligencia artificial?
-0.0560473	la lámpara de
-0.0568586	la luz del
-0.3773781	la sala </s>
-0.4306403	la sala de
-0.1091693	frio esta </s>
-0.01862381	un chiste </s>
-0.1251844	un microprocesador </s>
-0.7360073	un microprocesador ?
-0.1251844	un procesador </s>
-0.7360073	un procesador ?
-0.02336628	una broma </s>
-0.02336628	algo gracioso </s>
-0.06377775	los microprocesadores </s>
-0.06377775	los procesadores </s>
-0.1901058	sirve la inteligencia
-0.06377775	microprocesador ? </s>
-0.06377775	procesador ? </s>
-0.05437942	puede hacer con
-0.05171649	puede lograr la
-0.1901058	usa la inteligencia
-0.1901058	utiliza la inteligencia
-0.03677579	puerta del garaje
-0.007738402	inteligencia artificial </s>
-0.004679427	inteligencia artificial? </s>
-0.05171649	hacer con la
-0.1181894	lograr la inteligencia
-0.01722481	del garaje </s>
-0.1525732	lámpara de la
-0.1181894	con la inteligencia
-0.03476561	luz del garaje
-0.2881439	sala de estar

\end\
